<?xml version="1.0"?>
<opencv_storage>
<cascade>
  <stageType>BOOST</stageType>
  <featureType>HAAR</featureType>
  <height>20</height>
  <width>76</width>
  <stageParams>
    <boostType>GAB</boostType>
    <minHitRate>9.9989998340606689e-01</minHitRate>
    <maxFalseAlarm>5.0000000000000000e-01</maxFalseAlarm>
    <weightTrimRate>9.4999999999999996e-01</weightTrimRate>
    <maxDepth>1</maxDepth>
    <maxWeakCount>100</maxWeakCount></stageParams>
  <featureParams>
    <maxCatCount>0</maxCatCount>
    <featSize>1</featSize>
    <mode>ALL</mode></featureParams>
  <stageNum>11</stageNum>
  <stages>
    <!-- stage 0 -->
    <_>
      <maxWeakCount>3</maxWeakCount>
      <stageThreshold>-7.5490176677703857e-01</stageThreshold>
      <weakClassifiers>
        <_>
          <internalNodes>
            0 -1 34 1.0148528032004833e-02</internalNodes>
          <leafValues>
            -8.4713375568389893e-01 9.2500001192092896e-01</leafValues></_>
        <_>
          <internalNodes>
            0 -1 9 1.6008282080292702e-02</internalNodes>
          <leafValues>
            -8.3338928222656250e-01 8.3276861906051636e-01</leafValues></_>
        <_>
          <internalNodes>
            0 -1 42 6.2854881398379803e-03</internalNodes>
          <leafValues>
            -6.5974611043930054e-01 9.2562127113342285e-01</leafValues></_></weakClassifiers></_>
    <!-- stage 1 -->
    <_>
      <maxWeakCount>4</maxWeakCount>
      <stageThreshold>-1.2513713836669922e+00</stageThreshold>
      <weakClassifiers>
        <_>
          <internalNodes>
            0 -1 16 1.6230737790465355e-02</internalNodes>
          <leafValues>
            -7.7142858505249023e-01 6.4556962251663208e-01</leafValues></_>
        <_>
          <internalNodes>
            0 -1 45 1.3758554123342037e-03</internalNodes>
          <leafValues>
            -6.8976736068725586e-01 5.6155848503112793e-01</leafValues></_>
        <_>
          <internalNodes>
            0 -1 6 -3.5071566700935364e-02</internalNodes>
          <leafValues>
            7.8262233734130859e-01 -5.3466409444808960e-01</leafValues></_>
        <_>
          <internalNodes>
            0 -1 4 1.4464962296187878e-02</internalNodes>
          <leafValues>
            -5.0683712959289551e-01 7.5603163242340088e-01</leafValues></_></weakClassifiers></_>
    <!-- stage 2 -->
    <_>
      <maxWeakCount>4</maxWeakCount>
      <stageThreshold>-9.6961647272109985e-01</stageThreshold>
      <weakClassifiers>
        <_>
          <internalNodes>
            0 -1 0 5.1678279414772987e-03</internalNodes>
          <leafValues>
            -8.2517480850219727e-01 4.0740740299224854e-01</leafValues></_>
        <_>
          <internalNodes>
            0 -1 19 2.0138006657361984e-03</internalNodes>
          <leafValues>
            -8.7035673856735229e-01 3.9457648992538452e-01</leafValues></_>
        <_>
          <internalNodes>
            0 -1 36 5.0244759768247604e-03</internalNodes>
          <leafValues>
            -8.5744220018386841e-01 4.1864305734634399e-01</leafValues></_>
        <_>
          <internalNodes>
            0 -1 27 -9.4739980995655060e-02</internalNodes>
          <leafValues>
            -9.7660028934478760e-01 3.1842401623725891e-01</leafValues></_></weakClassifiers></_>
    <!-- stage 3 -->
    <_>
      <maxWeakCount>5</maxWeakCount>
      <stageThreshold>-1.0724164247512817e+00</stageThreshold>
      <weakClassifiers>
        <_>
          <internalNodes>
            0 -1 15 4.9650501459836960e-03</internalNodes>
          <leafValues>
            -7.2049689292907715e-01 5.5555558204650879e-01</leafValues></_>
        <_>
          <internalNodes>
            0 -1 17 -1.8019381910562515e-02</internalNodes>
          <leafValues>
            7.9280060529708862e-01 -4.8840507864952087e-01</leafValues></_>
        <_>
          <internalNodes>
            0 -1 20 1.1886069551110268e-03</internalNodes>
          <leafValues>
            -6.4227873086929321e-01 5.2440190315246582e-01</leafValues></_>
        <_>
          <internalNodes>
            0 -1 40 -2.0812315051443875e-04</internalNodes>
          <leafValues>
            -9.7812688350677490e-01 3.7314188480377197e-01</leafValues></_>
        <_>
          <internalNodes>
            0 -1 8 -4.8641897737979889e-03</internalNodes>
          <leafValues>
            4.0562239289283752e-01 -7.6028031110763550e-01</leafValues></_></weakClassifiers></_>
    <!-- stage 4 -->
    <_>
      <maxWeakCount>4</maxWeakCount>
      <stageThreshold>-1.0834625959396362e+00</stageThreshold>
      <weakClassifiers>
        <_>
          <internalNodes>
            0 -1 5 7.3201274499297142e-03</internalNodes>
          <leafValues>
            -6.8914955854415894e-01 8.1132078170776367e-01</leafValues></_>
        <_>
          <internalNodes>
            0 -1 12 1.9878288730978966e-03</internalNodes>
          <leafValues>
            -4.8901233077049255e-01 7.2198086977005005e-01</leafValues></_>
        <_>
          <internalNodes>
            0 -1 30 3.3667343668639660e-03</internalNodes>
          <leafValues>
            -6.1315649747848511e-01 5.5994653701782227e-01</leafValues></_>
        <_>
          <internalNodes>
            0 -1 46 3.9814123883843422e-03</internalNodes>
          <leafValues>
            -4.6308535337448120e-01 7.0785588026046753e-01</leafValues></_></weakClassifiers></_>
    <!-- stage 5 -->
    <_>
      <maxWeakCount>5</maxWeakCount>
      <stageThreshold>-8.3253717422485352e-01</stageThreshold>
      <weakClassifiers>
        <_>
          <internalNodes>
            0 -1 2 2.5931555777788162e-02</internalNodes>
          <leafValues>
            -6.6570603847503662e-01 8.2978725433349609e-01</leafValues></_>
        <_>
          <internalNodes>
            0 -1 23 -8.0535933375358582e-04</internalNodes>
          <leafValues>
            -9.0165746212005615e-01 2.6470947265625000e-01</leafValues></_>
        <_>
          <internalNodes>
            0 -1 13 5.0302599556744099e-03</internalNodes>
          <leafValues>
            -5.0251787900924683e-01 6.2164902687072754e-01</leafValues></_>
        <_>
          <internalNodes>
            0 -1 22 1.4016281347721815e-03</internalNodes>
          <leafValues>
            -6.2654185295104980e-01 4.8438841104507446e-01</leafValues></_>
        <_>
          <internalNodes>
            0 -1 38 -2.0109711214900017e-02</internalNodes>
          <leafValues>
            8.3652353286743164e-01 -4.1341111063957214e-01</leafValues></_></weakClassifiers></_>
    <!-- stage 6 -->
    <_>
      <maxWeakCount>4</maxWeakCount>
      <stageThreshold>-5.7051008939743042e-01</stageThreshold>
      <weakClassifiers>
        <_>
          <internalNodes>
            0 -1 28 -1.5972293913364410e-02</internalNodes>
          <leafValues>
            4.9295774102210999e-01 -7.0278638601303101e-01</leafValues></_>
        <_>
          <internalNodes>
            0 -1 3 4.8769698478281498e-03</internalNodes>
          <leafValues>
            -7.5516474246978760e-01 3.9130991697311401e-01</leafValues></_>
        <_>
          <internalNodes>
            0 -1 21 -2.9141540289856493e-04</internalNodes>
          <leafValues>
            -9.8761439323425293e-01 2.8515273332595825e-01</leafValues></_>
        <_>
          <internalNodes>
            0 -1 32 -4.4459211640059948e-03</internalNodes>
          <leafValues>
            6.0455775260925293e-01 -5.4418635368347168e-01</leafValues></_></weakClassifiers></_>
    <!-- stage 7 -->
    <_>
      <maxWeakCount>5</maxWeakCount>
      <stageThreshold>-1.0420043468475342e+00</stageThreshold>
      <weakClassifiers>
        <_>
          <internalNodes>
            0 -1 14 -4.6343160793185234e-03</internalNodes>
          <leafValues>
            7.7272725105285645e-01 -6.4571428298950195e-01</leafValues></_>
        <_>
          <internalNodes>
            0 -1 7 5.9301499277353287e-03</internalNodes>
          <leafValues>
            -7.8753006458282471e-01 3.5681736469268799e-01</leafValues></_>
        <_>
          <internalNodes>
            0 -1 24 1.2969854287803173e-04</internalNodes>
          <leafValues>
            2.9694876074790955e-01 -8.7824261188507080e-01</leafValues></_>
        <_>
          <internalNodes>
            0 -1 11 1.5195623971521854e-02</internalNodes>
          <leafValues>
            -4.8046171665191650e-01 6.7169845104217529e-01</leafValues></_>
        <_>
          <internalNodes>
            0 -1 43 6.7751146852970123e-03</internalNodes>
          <leafValues>
            -4.7817695140838623e-01 6.0559689998626709e-01</leafValues></_></weakClassifiers></_>
    <!-- stage 8 -->
    <_>
      <maxWeakCount>5</maxWeakCount>
      <stageThreshold>-1.0753613710403442e+00</stageThreshold>
      <weakClassifiers>
        <_>
          <internalNodes>
            0 -1 39 -6.0343788936734200e-03</internalNodes>
          <leafValues>
            5.0819671154022217e-01 -6.6966968774795532e-01</leafValues></_>
        <_>
          <internalNodes>
            0 -1 26 1.5664875973016024e-03</internalNodes>
          <leafValues>
            2.5360676646232605e-01 -9.3124234676361084e-01</leafValues></_>
        <_>
          <internalNodes>
            0 -1 10 -7.5434865429997444e-03</internalNodes>
          <leafValues>
            8.3706611394882202e-01 -3.8855186104774475e-01</leafValues></_>
        <_>
          <internalNodes>
            0 -1 24 -1.4833107707090676e-04</internalNodes>
          <leafValues>
            -9.9118387699127197e-01 3.3077043294906616e-01</leafValues></_>
        <_>
          <internalNodes>
            0 -1 35 7.2447247803211212e-03</internalNodes>
          <leafValues>
            -4.8203474283218384e-01 5.8333206176757813e-01</leafValues></_></weakClassifiers></_>
    <!-- stage 9 -->
    <_>
      <maxWeakCount>5</maxWeakCount>
      <stageThreshold>-9.4758778810501099e-01</stageThreshold>
      <weakClassifiers>
        <_>
          <internalNodes>
            0 -1 1 5.5221095681190491e-03</internalNodes>
          <leafValues>
            -7.2666668891906738e-01 2.7659574151039124e-01</leafValues></_>
        <_>
          <internalNodes>
            0 -1 37 -3.9494629018008709e-03</internalNodes>
          <leafValues>
            4.0711429715156555e-01 -6.8068182468414307e-01</leafValues></_>
        <_>
          <internalNodes>
            0 -1 18 2.5090659037232399e-03</internalNodes>
          <leafValues>
            -7.2380489110946655e-01 3.3357745409011841e-01</leafValues></_>
        <_>
          <internalNodes>
            0 -1 25 7.1074662264436483e-04</internalNodes>
          <leafValues>
            -5.8956384658813477e-01 4.9908828735351563e-01</leafValues></_>
        <_>
          <internalNodes>
            0 -1 33 -8.9623285457491875e-03</internalNodes>
          <leafValues>
            8.5980939865112305e-01 -2.8751534223556519e-01</leafValues></_></weakClassifiers></_>
    <!-- stage 10 -->
    <_>
      <maxWeakCount>5</maxWeakCount>
      <stageThreshold>-7.9053509235382080e-01</stageThreshold>
      <weakClassifiers>
        <_>
          <internalNodes>
            0 -1 29 4.7459299676120281e-03</internalNodes>
          <leafValues>
            -6.9811320304870605e-01 3.9473685622215271e-01</leafValues></_>
        <_>
          <internalNodes>
            0 -1 44 3.7842420861124992e-03</internalNodes>
          <leafValues>
            -4.6417692303657532e-01 5.9297418594360352e-01</leafValues></_>
        <_>
          <internalNodes>
            0 -1 41 -3.7657289067283273e-04</internalNodes>
          <leafValues>
            -8.6281293630599976e-01 3.0944213271141052e-01</leafValues></_>
        <_>
          <internalNodes>
            0 -1 47 2.7520698495209217e-03</internalNodes>
          <leafValues>
            -4.7690123319625854e-01 6.1781668663024902e-01</leafValues></_>
        <_>
          <internalNodes>
            0 -1 31 6.6120974952355027e-04</internalNodes>
          <leafValues>
            -4.7385352849960327e-01 6.1675125360488892e-01</leafValues></_></weakClassifiers></_></stages>
  <features>
    <_>
      <rects>
        <_>
          0 0 8 5 -1.</_>
        <_>
          4 0 4 5 2.</_></rects>
      <tilted>0</tilted></_>
    <_>
      <rects>
        <_>
          0 0 25 2 -1.</_>
        <_>
          0 1 25 1 2.</_></rects>
      <tilted>0</tilted></_>
    <_>
      <rects>
        <_>
          0 1 4 15 -1.</_>
        <_>
          2 1 2 15 2.</_></rects>
      <tilted>0</tilted></_>
    <_>
      <rects>
        <_>
          0 1 16 4 -1.</_>
        <_>
          4 1 8 4 2.</_></rects>
      <tilted>0</tilted></_>
    <_>
      <rects>
        <_>
          0 7 12 10 -1.</_>
        <_>
          3 7 6 10 2.</_></rects>
      <tilted>0</tilted></_>
    <_>
      <rects>
        <_>
          2 1 4 16 -1.</_>
        <_>
          3 1 2 16 2.</_></rects>
      <tilted>0</tilted></_>
    <_>
      <rects>
        <_>
          4 4 51 4 -1.</_>
        <_>
          4 6 51 2 2.</_></rects>
      <tilted>0</tilted></_>
    <_>
      <rects>
        <_>
          4 15 72 5 -1.</_>
        <_>
          22 15 36 5 2.</_></rects>
      <tilted>0</tilted></_>
    <_>
      <rects>
        <_>
          5 2 6 8 -1.</_>
        <_>
          5 6 6 4 2.</_></rects>
      <tilted>0</tilted></_>
    <_>
      <rects>
        <_>
          6 0 33 8 -1.</_>
        <_>
          6 2 33 4 2.</_></rects>
      <tilted>0</tilted></_>
    <_>
      <rects>
        <_>
          6 6 6 3 -1.</_>
        <_>
          8 7 2 1 9.</_></rects>
      <tilted>0</tilted></_>
    <_>
      <rects>
        <_>
          8 3 39 4 -1.</_>
        <_>
          8 4 39 2 2.</_></rects>
      <tilted>0</tilted></_>
    <_>
      <rects>
        <_>
          11 6 4 5 -1.</_>
        <_>
          12 6 2 5 2.</_></rects>
      <tilted>0</tilted></_>
    <_>
      <rects>
        <_>
          11 8 4 7 -1.</_>
        <_>
          13 8 2 7 2.</_></rects>
      <tilted>0</tilted></_>
    <_>
      <rects>
        <_>
          11 8 3 3 -1.</_>
        <_>
          10 9 3 1 3.</_></rects>
      <tilted>1</tilted></_>
    <_>
      <rects>
        <_>
          12 8 4 9 -1.</_>
        <_>
          13 8 2 9 2.</_></rects>
      <tilted>0</tilted></_>
    <_>
      <rects>
        <_>
          15 16 39 4 -1.</_>
        <_>
          15 17 39 2 2.</_></rects>
      <tilted>0</tilted></_>
    <_>
      <rects>
        <_>
          16 18 56 2 -1.</_>
        <_>
          16 19 56 1 2.</_></rects>
      <tilted>0</tilted></_>
    <_>
      <rects>
        <_>
          17 2 10 4 -1.</_>
        <_>
          22 2 5 4 2.</_></rects>
      <tilted>0</tilted></_>
    <_>
      <rects>
        <_>
          18 0 8 7 -1.</_>
        <_>
          22 0 4 7 2.</_></rects>
      <tilted>0</tilted></_>
    <_>
      <rects>
        <_>
          18 7 19 2 -1.</_>
        <_>
          18 8 19 1 2.</_></rects>
      <tilted>0</tilted></_>
    <_>
      <rects>
        <_>
          29 0 8 3 -1.</_>
        <_>
          31 0 4 3 2.</_></rects>
      <tilted>0</tilted></_>
    <_>
      <rects>
        <_>
          29 0 5 4 -1.</_>
        <_>
          29 2 5 2 2.</_></rects>
      <tilted>0</tilted></_>
    <_>
      <rects>
        <_>
          30 18 16 2 -1.</_>
        <_>
          34 18 8 2 2.</_></rects>
      <tilted>0</tilted></_>
    <_>
      <rects>
        <_>
          31 0 4 2 -1.</_>
        <_>
          32 0 2 2 2.</_></rects>
      <tilted>0</tilted></_>
    <_>
      <rects>
        <_>
          31 5 9 3 -1.</_>
        <_>
          34 6 3 1 9.</_></rects>
      <tilted>0</tilted></_>
    <_>
      <rects>
        <_>
          31 18 16 2 -1.</_>
        <_>
          35 18 8 2 2.</_></rects>
      <tilted>0</tilted></_>
    <_>
      <rects>
        <_>
          32 0 36 3 -1.</_>
        <_>
          44 0 12 3 2.</_></rects>
      <tilted>0</tilted></_>
    <_>
      <rects>
        <_>
          32 7 8 9 -1.</_>
        <_>
          36 7 4 9 2.</_></rects>
      <tilted>0</tilted></_>
    <_>
      <rects>
        <_>
          34 10 6 4 -1.</_>
        <_>
          33 11 6 2 2.</_></rects>
      <tilted>1</tilted></_>
    <_>
      <rects>
        <_>
          36 11 23 4 -1.</_>
        <_>
          36 12 23 2 2.</_></rects>
      <tilted>0</tilted></_>
    <_>
      <rects>
        <_>
          39 9 4 3 -1.</_>
        <_>
          40 9 2 3 2.</_></rects>
      <tilted>0</tilted></_>
    <_>
      <rects>
        <_>
          40 2 5 6 -1.</_>
        <_>
          40 5 5 3 2.</_></rects>
      <tilted>0</tilted></_>
    <_>
      <rects>
        <_>
          40 10 6 3 -1.</_>
        <_>
          42 11 2 1 9.</_></rects>
      <tilted>0</tilted></_>
    <_>
      <rects>
        <_>
          40 16 35 4 -1.</_>
        <_>
          40 17 35 2 2.</_></rects>
      <tilted>0</tilted></_>
    <_>
      <rects>
        <_>
          43 6 12 3 -1.</_>
        <_>
          47 7 4 1 9.</_></rects>
      <tilted>0</tilted></_>
    <_>
      <rects>
        <_>
          49 14 27 4 -1.</_>
        <_>
          49 16 27 2 2.</_></rects>
      <tilted>0</tilted></_>
    <_>
      <rects>
        <_>
          50 1 16 6 -1.</_>
        <_>
          54 1 8 6 2.</_></rects>
      <tilted>0</tilted></_>
    <_>
      <rects>
        <_>
          50 16 24 4 -1.</_>
        <_>
          50 18 24 2 2.</_></rects>
      <tilted>0</tilted></_>
    <_>
      <rects>
        <_>
          51 7 8 4 -1.</_>
        <_>
          50 8 8 2 2.</_></rects>
      <tilted>1</tilted></_>
    <_>
      <rects>
        <_>
          58 17 16 3 -1.</_>
        <_>
          62 17 8 3 2.</_></rects>
      <tilted>0</tilted></_>
    <_>
      <rects>
        <_>
          59 0 16 2 -1.</_>
        <_>
          63 0 8 2 2.</_></rects>
      <tilted>0</tilted></_>
    <_>
      <rects>
        <_>
          62 15 13 4 -1.</_>
        <_>
          62 16 13 2 2.</_></rects>
      <tilted>0</tilted></_>
    <_>
      <rects>
        <_>
          64 11 12 8 -1.</_>
        <_>
          67 11 6 8 2.</_></rects>
      <tilted>0</tilted></_>
    <_>
      <rects>
        <_>
          64 12 4 4 -1.</_>
        <_>
          63 13 4 2 2.</_></rects>
      <tilted>1</tilted></_>
    <_>
      <rects>
        <_>
          67 15 2 3 -1.</_>
        <_>
          66 16 2 1 3.</_></rects>
      <tilted>1</tilted></_>
    <_>
      <rects>
        <_>
          68 8 8 7 -1.</_>
        <_>
          70 8 4 7 2.</_></rects>
      <tilted>0</tilted></_>
    <_>
      <rects>
        <_>
          68 16 5 4 -1.</_>
        <_>
          68 17 5 2 2.</_></rects>
      <tilted>0</tilted></_></features></cascade>
</opencv_storage>
